digraph Tree {
node [shape=box] ;
0 [label="X[3] <= 0.588\ngini = 0.667\nsamples = 149\nvalue = [49, 50, 50]"] ;
1 [label="gini = 0.0\nsamples = 48\nvalue = [48, 0, 0]"] ;
0 -> 1 [labeldistance=2.5, labelangle=45, headlabel="True"] ;
2 [label="X[0] <= 6.647\ngini = 0.51\nsamples = 101\nvalue = [1, 50, 50]"] ;
0 -> 2 [labeldistance=2.5, labelangle=-45, headlabel="False"] ;
3 [label="X[3] <= 1.701\ngini = 0.493\nsamples = 74\nvalue = [1, 44, 29]"] ;
2 -> 3 ;
4 [label="X[2] <= 2.787\ngini = 0.19\nsamples = 48\nvalue = [1, 43, 4]"] ;
3 -> 4 ;
5 [label="gini = 0.0\nsamples = 1\nvalue = [1, 0, 0]"] ;
4 -> 5 ;
6 [label="X[2] <= 4.557\ngini = 0.156\nsamples = 47\nvalue = [0, 43, 4]"] ;
4 -> 6 ;
7 [label="gini = 0.054\nsamples = 36\nvalue = [0, 35, 1]"] ;
6 -> 7 ;
8 [label="gini = 0.397\nsamples = 11\nvalue = [0, 8, 3]"] ;
6 -> 8 ;
9 [label="X[0] <= 5.949\ngini = 0.074\nsamples = 26\nvalue = [0, 1, 25]"] ;
3 -> 9 ;
10 [label="X[1] <= 3.02\ngini = 0.219\nsamples = 8\nvalue = [0, 1, 7]"] ;
9 -> 10 ;
11 [label="gini = 0.0\nsamples = 7\nvalue = [0, 0, 7]"] ;
10 -> 11 ;
12 [label="gini = 0.0\nsamples = 1\nvalue = [0, 1, 0]"] ;
10 -> 12 ;
13 [label="gini = 0.0\nsamples = 18\nvalue = [0, 0, 18]"] ;
9 -> 13 ;
14 [label="X[2] <= 4.721\ngini = 0.346\nsamples = 27\nvalue = [0, 6, 21]"] ;
2 -> 14 ;
15 [label="gini = 0.0\nsamples = 3\nvalue = [0, 3, 0]"] ;
14 -> 15 ;
16 [label="X[3] <= 2.186\ngini = 0.219\nsamples = 24\nvalue = [0, 3, 21]"] ;
14 -> 16 ;
17 [label="X[2] <= 5.203\ngini = 0.337\nsamples = 14\nvalue = [0, 3, 11]"] ;
16 -> 17 ;
18 [label="gini = 0.0\nsamples = 3\nvalue = [0, 3, 0]"] ;
17 -> 18 ;
19 [label="gini = 0.0\nsamples = 11\nvalue = [0, 0, 11]"] ;
17 -> 19 ;
20 [label="gini = 0.0\nsamples = 10\nvalue = [0, 0, 10]"] ;
16 -> 20 ;
}